digraph Tree {
node [shape=box, style="filled, rounded", color="black", fontname=helvetica] ;
edge [fontname=helvetica] ;
0 [label="X[2] <= 2.5\nentropy = 1.328\nsamples = 437\nvalue = [36, 203, 198]", fillcolor="#39e58105"] ;
1 [label="X[0] <= 2.5\nentropy = 1.115\nsamples = 165\nvalue = [13, 117, 35]", fillcolor="#39e581a1"] ;
0 -> 1 [labeldistance=2.5, labelangle=45, headlabel="True"] ;
2 [label="X[1] <= 2.5\nentropy = 1.505\nsamples = 64\nvalue = [12, 28, 24]", fillcolor="#39e5811a"] ;
1 -> 2 ;
3 [label="X[3] <= 2.5\nentropy = 1.214\nsamples = 23\nvalue = [6, 2, 15]", fillcolor="#8139e587"] ;
2 -> 3 ;
4 [label="X[1] <= 1.5\nentropy = 1.371\nsamples = 10\nvalue = [6, 2, 2]", fillcolor="#e581397f"] ;
3 -> 4 ;
5 [label="X[3] <= 1.5\nentropy = 0.971\nsamples = 5\nvalue = [3, 0, 2]", fillcolor="#e5813955"] ;
4 -> 5 ;
6 [label="entropy = 0.0\nsamples = 2\nvalue = [2, 0, 0]", fillcolor="#e58139ff"] ;
5 -> 6 ;
7 [label="X[2] <= 1.5\nentropy = 0.918\nsamples = 3\nvalue = [1, 0, 2]", fillcolor="#8139e57f"] ;
5 -> 7 ;
8 [label="X[0] <= 1.5\nentropy = 1.0\nsamples = 2\nvalue = [1, 0, 1]", fillcolor="#e5813900"] ;
7 -> 8 ;
9 [label="entropy = 0.0\nsamples = 1\nvalue = [0, 0, 1]", fillcolor="#8139e5ff"] ;
8 -> 9 ;
10 [label="entropy = 0.0\nsamples = 1\nvalue = [1, 0, 0]", fillcolor="#e58139ff"] ;
8 -> 10 ;
11 [label="entropy = 0.0\nsamples = 1\nvalue = [0, 0, 1]", fillcolor="#8139e5ff"] ;
7 -> 11 ;
12 [label="X[0] <= 1.5\nentropy = 0.971\nsamples = 5\nvalue = [3, 2, 0]", fillcolor="#e5813955"] ;
4 -> 12 ;
13 [label="entropy = 0.0\nsamples = 2\nvalue = [2, 0, 0]", fillcolor="#e58139ff"] ;
12 -> 13 ;
14 [label="X[2] <= 1.5\nentropy = 0.918\nsamples = 3\nvalue = [1, 2, 0]", fillcolor="#39e5817f"] ;
12 -> 14 ;
15 [label="entropy = 0.0\nsamples = 2\nvalue = [0, 2, 0]", fillcolor="#39e581ff"] ;
14 -> 15 ;
16 [label="entropy = 0.0\nsamples = 1\nvalue = [1, 0, 0]", fillcolor="#e58139ff"] ;
14 -> 16 ;
17 [label="entropy = 0.0\nsamples = 13\nvalue = [0, 0, 13]", fillcolor="#8139e5ff"] ;
3 -> 17 ;
18 [label="X[3] <= 2.5\nentropy = 1.303\nsamples = 41\nvalue = [6, 26, 9]", fillcolor="#39e58187"] ;
2 -> 18 ;
19 [label="X[2] <= 1.5\nentropy = 0.353\nsamples = 15\nvalue = [1, 14, 0]", fillcolor="#39e581ed"] ;
18 -> 19 ;
20 [label="entropy = 0.0\nsamples = 8\nvalue = [0, 8, 0]", fillcolor="#39e581ff"] ;
19 -> 20 ;
21 [label="X[0] <= 1.5\nentropy = 0.592\nsamples = 7\nvalue = [1, 6, 0]", fillcolor="#39e581d4"] ;
19 -> 21 ;
22 [label="X[3] <= 1.5\nentropy = 0.918\nsamples = 3\nvalue = [1, 2, 0]", fillcolor="#39e5817f"] ;
21 -> 22 ;
23 [label="entropy = 0.0\nsamples = 2\nvalue = [0, 2, 0]", fillcolor="#39e581ff"] ;
22 -> 23 ;
24 [label="entropy = 0.0\nsamples = 1\nvalue = [1, 0, 0]", fillcolor="#e58139ff"] ;
22 -> 24 ;
25 [label="entropy = 0.0\nsamples = 4\nvalue = [0, 4, 0]", fillcolor="#39e581ff"] ;
21 -> 25 ;
26 [label="X[2] <= 1.5\nentropy = 1.502\nsamples = 26\nvalue = [5, 12, 9]", fillcolor="#39e5812d"] ;
18 -> 26 ;
27 [label="X[0] <= 1.5\nentropy = 1.149\nsamples = 14\nvalue = [2, 10, 2]", fillcolor="#39e581aa"] ;
26 -> 27 ;
28 [label="X[3] <= 3.5\nentropy = 1.585\nsamples = 6\nvalue = [2, 2, 2]", fillcolor="#e5813900"] ;
27 -> 28 ;
29 [label="X[1] <= 3.5\nentropy = 0.918\nsamples = 3\nvalue = [1, 2, 0]", fillcolor="#39e5817f"] ;
28 -> 29 ;
30 [label="entropy = 0.0\nsamples = 1\nvalue = [1, 0, 0]", fillcolor="#e58139ff"] ;
29 -> 30 ;
31 [label="entropy = 0.0\nsamples = 2\nvalue = [0, 2, 0]", fillcolor="#39e581ff"] ;
29 -> 31 ;
32 [label="X[1] <= 4.5\nentropy = 0.918\nsamples = 3\nvalue = [1, 0, 2]", fillcolor="#8139e57f"] ;
28 -> 32 ;
33 [label="entropy = 0.0\nsamples = 2\nvalue = [0, 0, 2]", fillcolor="#8139e5ff"] ;
32 -> 33 ;
34 [label="entropy = 0.0\nsamples = 1\nvalue = [1, 0, 0]", fillcolor="#e58139ff"] ;
32 -> 34 ;
35 [label="entropy = 0.0\nsamples = 8\nvalue = [0, 8, 0]", fillcolor="#39e581ff"] ;
27 -> 35 ;
36 [label="X[0] <= 1.5\nentropy = 1.384\nsamples = 12\nvalue = [3, 2, 7]", fillcolor="#8139e571"] ;
26 -> 36 ;
37 [label="entropy = 0.0\nsamples = 5\nvalue = [0, 0, 5]", fillcolor="#8139e5ff"] ;
36 -> 37 ;
38 [label="X[1] <= 4.5\nentropy = 1.557\nsamples = 7\nvalue = [3, 2, 2]", fillcolor="#e5813933"] ;
36 -> 38 ;
39 [label="X[3] <= 3.5\nentropy = 1.0\nsamples = 4\nvalue = [2, 0, 2]", fillcolor="#e5813900"] ;
38 -> 39 ;
40 [label="entropy = 0.0\nsamples = 1\nvalue = [1, 0, 0]", fillcolor="#e58139ff"] ;
39 -> 40 ;
41 [label="X[1] <= 3.5\nentropy = 0.918\nsamples = 3\nvalue = [1, 0, 2]", fillcolor="#8139e57f"] ;
39 -> 41 ;
42 [label="entropy = 0.0\nsamples = 1\nvalue = [0, 0, 1]", fillcolor="#8139e5ff"] ;
41 -> 42 ;
43 [label="X[3] <= 4.5\nentropy = 1.0\nsamples = 2\nvalue = [1, 0, 1]", fillcolor="#e5813900"] ;
41 -> 43 ;
44 [label="entropy = 0.0\nsamples = 1\nvalue = [1, 0, 0]", fillcolor="#e58139ff"] ;
43 -> 44 ;
45 [label="entropy = 0.0\nsamples = 1\nvalue = [0, 0, 1]", fillcolor="#8139e5ff"] ;
43 -> 45 ;
46 [label="X[3] <= 4.5\nentropy = 0.918\nsamples = 3\nvalue = [1, 2, 0]", fillcolor="#39e5817f"] ;
38 -> 46 ;
47 [label="entropy = 0.0\nsamples = 2\nvalue = [0, 2, 0]", fillcolor="#39e581ff"] ;
46 -> 47 ;
48 [label="entropy = 0.0\nsamples = 1\nvalue = [1, 0, 0]", fillcolor="#e58139ff"] ;
46 -> 48 ;
49 [label="X[1] <= 1.5\nentropy = 0.575\nsamples = 101\nvalue = [1, 89, 11]", fillcolor="#39e581dd"] ;
1 -> 49 ;
50 [label="X[2] <= 1.5\nentropy = 1.296\nsamples = 14\nvalue = [1, 6, 7]", fillcolor="#8139e520"] ;
49 -> 50 ;
51 [label="entropy = 0.0\nsamples = 4\nvalue = [0, 4, 0]", fillcolor="#39e581ff"] ;
50 -> 51 ;
52 [label="X[3] <= 2.5\nentropy = 1.157\nsamples = 10\nvalue = [1, 2, 7]", fillcolor="#8139e59f"] ;
50 -> 52 ;
53 [label="X[0] <= 3.5\nentropy = 1.5\nsamples = 4\nvalue = [1, 2, 1]", fillcolor="#39e58155"] ;
52 -> 53 ;
54 [label="X[3] <= 1.5\nentropy = 1.0\nsamples = 2\nvalue = [0, 1, 1]", fillcolor="#39e58100"] ;
53 -> 54 ;
55 [label="entropy = 0.0\nsamples = 1\nvalue = [0, 1, 0]", fillcolor="#39e581ff"] ;
54 -> 55 ;
56 [label="entropy = 0.0\nsamples = 1\nvalue = [0, 0, 1]", fillcolor="#8139e5ff"] ;
54 -> 56 ;
57 [label="X[0] <= 4.5\nentropy = 1.0\nsamples = 2\nvalue = [1, 1, 0]", fillcolor="#e5813900"] ;
53 -> 57 ;
58 [label="entropy = 0.0\nsamples = 1\nvalue = [1, 0, 0]", fillcolor="#e58139ff"] ;
57 -> 58 ;
59 [label="entropy = 0.0\nsamples = 1\nvalue = [0, 1, 0]", fillcolor="#39e581ff"] ;
57 -> 59 ;
60 [label="entropy = 0.0\nsamples = 6\nvalue = [0, 0, 6]", fillcolor="#8139e5ff"] ;
52 -> 60 ;
61 [label="X[3] <= 3.5\nentropy = 0.269\nsamples = 87\nvalue = [0, 83, 4]", fillcolor="#39e581f3"] ;
49 -> 61 ;
62 [label="entropy = 0.0\nsamples = 51\nvalue = [0, 51, 0]", fillcolor="#39e581ff"] ;
61 -> 62 ;
63 [label="X[2] <= 1.5\nentropy = 0.503\nsamples = 36\nvalue = [0, 32, 4]", fillcolor="#39e581df"] ;
61 -> 63 ;
64 [label="entropy = 0.0\nsamples = 22\nvalue = [0, 22, 0]", fillcolor="#39e581ff"] ;
63 -> 64 ;
65 [label="X[1] <= 2.5\nentropy = 0.863\nsamples = 14\nvalue = [0, 10, 4]", fillcolor="#39e58199"] ;
63 -> 65 ;
66 [label="X[0] <= 4.5\nentropy = 0.811\nsamples = 4\nvalue = [0, 1, 3]", fillcolor="#8139e5aa"] ;
65 -> 66 ;
67 [label="entropy = 0.0\nsamples = 3\nvalue = [0, 0, 3]", fillcolor="#8139e5ff"] ;
66 -> 67 ;
68 [label="entropy = 0.0\nsamples = 1\nvalue = [0, 1, 0]", fillcolor="#39e581ff"] ;
66 -> 68 ;
69 [label="X[1] <= 3.5\nentropy = 0.469\nsamples = 10\nvalue = [0, 9, 1]", fillcolor="#39e581e3"] ;
65 -> 69 ;
70 [label="X[3] <= 4.5\nentropy = 0.811\nsamples = 4\nvalue = [0, 3, 1]", fillcolor="#39e581aa"] ;
69 -> 70 ;
71 [label="entropy = 0.0\nsamples = 2\nvalue = [0, 2, 0]", fillcolor="#39e581ff"] ;
70 -> 71 ;
72 [label="X[0] <= 3.5\nentropy = 1.0\nsamples = 2\nvalue = [0, 1, 1]", fillcolor="#39e58100"] ;
70 -> 72 ;
73 [label="entropy = 0.0\nsamples = 1\nvalue = [0, 0, 1]", fillcolor="#8139e5ff"] ;
72 -> 73 ;
74 [label="entropy = 0.0\nsamples = 1\nvalue = [0, 1, 0]", fillcolor="#39e581ff"] ;
72 -> 74 ;
75 [label="entropy = 0.0\nsamples = 6\nvalue = [0, 6, 0]", fillcolor="#39e581ff"] ;
69 -> 75 ;
76 [label="X[3] <= 2.5\nentropy = 1.269\nsamples = 272\nvalue = [23, 86, 163]", fillcolor="#8139e56a"] ;
0 -> 76 [labeldistance=2.5, labelangle=-45, headlabel="False"] ;
77 [label="X[0] <= 1.5\nentropy = 1.327\nsamples = 110\nvalue = [11, 62, 37]", fillcolor="#39e58157"] ;
76 -> 77 ;
78 [label="X[3] <= 1.5\nentropy = 0.986\nsamples = 27\nvalue = [3, 3, 21]", fillcolor="#8139e5bf"] ;
77 -> 78 ;
79 [label="X[1] <= 3.5\nentropy = 1.457\nsamples = 13\nvalue = [3, 3, 7]", fillcolor="#8139e566"] ;
78 -> 79 ;
80 [label="X[2] <= 3.5\nentropy = 0.592\nsamples = 7\nvalue = [1, 0, 6]", fillcolor="#8139e5d4"] ;
79 -> 80 ;
81 [label="X[1] <= 2.5\nentropy = 0.918\nsamples = 3\nvalue = [1, 0, 2]", fillcolor="#8139e57f"] ;
80 -> 81 ;
82 [label="entropy = 0.0\nsamples = 2\nvalue = [0, 0, 2]", fillcolor="#8139e5ff"] ;
81 -> 82 ;
83 [label="entropy = 0.0\nsamples = 1\nvalue = [1, 0, 0]", fillcolor="#e58139ff"] ;
81 -> 83 ;
84 [label="entropy = 0.0\nsamples = 4\nvalue = [0, 0, 4]", fillcolor="#8139e5ff"] ;
80 -> 84 ;
85 [label="X[2] <= 4.5\nentropy = 1.459\nsamples = 6\nvalue = [2, 3, 1]", fillcolor="#39e58140"] ;
79 -> 85 ;
86 [label="X[1] <= 4.5\nentropy = 0.811\nsamples = 4\nvalue = [1, 3, 0]", fillcolor="#39e581aa"] ;
85 -> 86 ;
87 [label="X[2] <= 3.5\nentropy = 1.0\nsamples = 2\nvalue = [1, 1, 0]", fillcolor="#e5813900"] ;
86 -> 87 ;
88 [label="entropy = 0.0\nsamples = 1\nvalue = [0, 1, 0]", fillcolor="#39e581ff"] ;
87 -> 88 ;
89 [label="entropy = 0.0\nsamples = 1\nvalue = [1, 0, 0]", fillcolor="#e58139ff"] ;
87 -> 89 ;
90 [label="entropy = 0.0\nsamples = 2\nvalue = [0, 2, 0]", fillcolor="#39e581ff"] ;
86 -> 90 ;
91 [label="X[1] <= 4.5\nentropy = 1.0\nsamples = 2\nvalue = [1, 0, 1]", fillcolor="#e5813900"] ;
85 -> 91 ;
92 [label="entropy = 0.0\nsamples = 1\nvalue = [0, 0, 1]", fillcolor="#8139e5ff"] ;
91 -> 92 ;
93 [label="entropy = 0.0\nsamples = 1\nvalue = [1, 0, 0]", fillcolor="#e58139ff"] ;
91 -> 93 ;
94 [label="entropy = 0.0\nsamples = 14\nvalue = [0, 0, 14]", fillcolor="#8139e5ff"] ;
78 -> 94 ;
95 [label="X[1] <= 2.5\nentropy = 1.133\nsamples = 83\nvalue = [8, 59, 16]", fillcolor="#39e581a4"] ;
77 -> 95 ;
96 [label="X[3] <= 1.5\nentropy = 1.473\nsamples = 31\nvalue = [5, 12, 14]", fillcolor="#8139e51b"] ;
95 -> 96 ;
97 [label="X[0] <= 2.5\nentropy = 1.29\nsamples = 17\nvalue = [3, 11, 3]", fillcolor="#39e58192"] ;
96 -> 97 ;
98 [label="X[1] <= 1.5\nentropy = 0.811\nsamples = 4\nvalue = [1, 0, 3]", fillcolor="#8139e5aa"] ;
97 -> 98 ;
99 [label="entropy = 0.0\nsamples = 2\nvalue = [0, 0, 2]", fillcolor="#8139e5ff"] ;
98 -> 99 ;
100 [label="X[2] <= 4.5\nentropy = 1.0\nsamples = 2\nvalue = [1, 0, 1]", fillcolor="#e5813900"] ;
98 -> 100 ;
101 [label="entropy = 0.0\nsamples = 1\nvalue = [1, 0, 0]", fillcolor="#e58139ff"] ;
100 -> 101 ;
102 [label="entropy = 0.0\nsamples = 1\nvalue = [0, 0, 1]", fillcolor="#8139e5ff"] ;
100 -> 102 ;
103 [label="X[1] <= 1.5\nentropy = 0.619\nsamples = 13\nvalue = [2, 11, 0]", fillcolor="#39e581d1"] ;
97 -> 103 ;
104 [label="X[2] <= 3.5\nentropy = 0.971\nsamples = 5\nvalue = [2, 3, 0]", fillcolor="#39e58155"] ;
103 -> 104 ;
105 [label="entropy = 0.0\nsamples = 2\nvalue = [0, 2, 0]", fillcolor="#39e581ff"] ;
104 -> 105 ;
106 [label="X[0] <= 4.5\nentropy = 0.918\nsamples = 3\nvalue = [2, 1, 0]", fillcolor="#e581397f"] ;
104 -> 106 ;
107 [label="entropy = 0.0\nsamples = 1\nvalue = [1, 0, 0]", fillcolor="#e58139ff"] ;
106 -> 107 ;
108 [label="X[2] <= 4.5\nentropy = 1.0\nsamples = 2\nvalue = [1, 1, 0]", fillcolor="#e5813900"] ;
106 -> 108 ;
109 [label="entropy = 0.0\nsamples = 1\nvalue = [0, 1, 0]", fillcolor="#39e581ff"] ;
108 -> 109 ;
110 [label="entropy = 0.0\nsamples = 1\nvalue = [1, 0, 0]", fillcolor="#e58139ff"] ;
108 -> 110 ;
111 [label="entropy = 0.0\nsamples = 8\nvalue = [0, 8, 0]", fillcolor="#39e581ff"] ;
103 -> 111 ;
112 [label="X[1] <= 1.5\nentropy = 0.946\nsamples = 14\nvalue = [2, 1, 11]", fillcolor="#8139e5bf"] ;
96 -> 112 ;
113 [label="entropy = 0.0\nsamples = 7\nvalue = [0, 0, 7]", fillcolor="#8139e5ff"] ;
112 -> 113 ;
114 [label="X[0] <= 4.5\nentropy = 1.379\nsamples = 7\nvalue = [2, 1, 4]", fillcolor="#8139e566"] ;
112 -> 114 ;
115 [label="X[2] <= 4.5\nentropy = 0.918\nsamples = 6\nvalue = [2, 0, 4]", fillcolor="#8139e57f"] ;
114 -> 115 ;
116 [label="X[0] <= 2.5\nentropy = 1.0\nsamples = 4\nvalue = [2, 0, 2]", fillcolor="#e5813900"] ;
115 -> 116 ;
117 [label="entropy = 0.0\nsamples = 1\nvalue = [0, 0, 1]", fillcolor="#8139e5ff"] ;
116 -> 117 ;
118 [label="X[0] <= 3.5\nentropy = 0.918\nsamples = 3\nvalue = [2, 0, 1]", fillcolor="#e581397f"] ;
116 -> 118 ;
119 [label="X[2] <= 3.5\nentropy = 1.0\nsamples = 2\nvalue = [1, 0, 1]", fillcolor="#e5813900"] ;
118 -> 119 ;
120 [label="entropy = 0.0\nsamples = 1\nvalue = [1, 0, 0]", fillcolor="#e58139ff"] ;
119 -> 120 ;
121 [label="entropy = 0.0\nsamples = 1\nvalue = [0, 0, 1]", fillcolor="#8139e5ff"] ;
119 -> 121 ;
122 [label="entropy = 0.0\nsamples = 1\nvalue = [1, 0, 0]", fillcolor="#e58139ff"] ;
118 -> 122 ;
123 [label="entropy = 0.0\nsamples = 2\nvalue = [0, 0, 2]", fillcolor="#8139e5ff"] ;
115 -> 123 ;
124 [label="entropy = 0.0\nsamples = 1\nvalue = [0, 1, 0]", fillcolor="#39e581ff"] ;
114 -> 124 ;
125 [label="X[0] <= 2.5\nentropy = 0.55\nsamples = 52\nvalue = [3, 47, 2]", fillcolor="#39e581e5"] ;
95 -> 125 ;
126 [label="X[3] <= 1.5\nentropy = 1.095\nsamples = 14\nvalue = [3, 10, 1]", fillcolor="#39e581a2"] ;
125 -> 126 ;
127 [label="entropy = 0.0\nsamples = 7\nvalue = [0, 7, 0]", fillcolor="#39e581ff"] ;
126 -> 127 ;
128 [label="X[2] <= 4.5\nentropy = 1.449\nsamples = 7\nvalue = [3, 3, 1]", fillcolor="#e5813900"] ;
126 -> 128 ;
129 [label="X[1] <= 4.5\nentropy = 0.971\nsamples = 5\nvalue = [2, 3, 0]", fillcolor="#39e58155"] ;
128 -> 129 ;
130 [label="X[2] <= 3.5\nentropy = 0.918\nsamples = 3\nvalue = [2, 1, 0]", fillcolor="#e581397f"] ;
129 -> 130 ;
131 [label="X[1] <= 3.5\nentropy = 1.0\nsamples = 2\nvalue = [1, 1, 0]", fillcolor="#e5813900"] ;
130 -> 131 ;
132 [label="entropy = 0.0\nsamples = 1\nvalue = [1, 0, 0]", fillcolor="#e58139ff"] ;
131 -> 132 ;
133 [label="entropy = 0.0\nsamples = 1\nvalue = [0, 1, 0]", fillcolor="#39e581ff"] ;
131 -> 133 ;
134 [label="entropy = 0.0\nsamples = 1\nvalue = [1, 0, 0]", fillcolor="#e58139ff"] ;
130 -> 134 ;
135 [label="entropy = 0.0\nsamples = 2\nvalue = [0, 2, 0]", fillcolor="#39e581ff"] ;
129 -> 135 ;
136 [label="X[1] <= 4.0\nentropy = 1.0\nsamples = 2\nvalue = [1, 0, 1]", fillcolor="#e5813900"] ;
128 -> 136 ;
137 [label="entropy = 0.0\nsamples = 1\nvalue = [0, 0, 1]", fillcolor="#8139e5ff"] ;
136 -> 137 ;
138 [label="entropy = 0.0\nsamples = 1\nvalue = [1, 0, 0]", fillcolor="#e58139ff"] ;
136 -> 138 ;
139 [label="X[0] <= 3.5\nentropy = 0.176\nsamples = 38\nvalue = [0, 37, 1]", fillcolor="#39e581f8"] ;
125 -> 139 ;
140 [label="X[1] <= 3.5\nentropy = 0.503\nsamples = 9\nvalue = [0, 8, 1]", fillcolor="#39e581df"] ;
139 -> 140 ;
141 [label="X[2] <= 4.5\nentropy = 0.918\nsamples = 3\nvalue = [0, 2, 1]", fillcolor="#39e5817f"] ;
140 -> 141 ;
142 [label="entropy = 0.0\nsamples = 2\nvalue = [0, 2, 0]", fillcolor="#39e581ff"] ;
141 -> 142 ;
143 [label="entropy = 0.0\nsamples = 1\nvalue = [0, 0, 1]", fillcolor="#8139e5ff"] ;
141 -> 143 ;
144 [label="entropy = 0.0\nsamples = 6\nvalue = [0, 6, 0]", fillcolor="#39e581ff"] ;
140 -> 144 ;
145 [label="entropy = 0.0\nsamples = 29\nvalue = [0, 29, 0]", fillcolor="#39e581ff"] ;
139 -> 145 ;
146 [label="X[0] <= 2.5\nentropy = 0.968\nsamples = 162\nvalue = [12, 24, 126]", fillcolor="#8139e5bc"] ;
76 -> 146 ;
147 [label="X[1] <= 4.5\nentropy = 0.113\nsamples = 66\nvalue = [0, 1, 65]", fillcolor="#8139e5fb"] ;
146 -> 147 ;
148 [label="entropy = 0.0\nsamples = 53\nvalue = [0, 0, 53]", fillcolor="#8139e5ff"] ;
147 -> 148 ;
149 [label="X[3] <= 3.5\nentropy = 0.391\nsamples = 13\nvalue = [0, 1, 12]", fillcolor="#8139e5ea"] ;
147 -> 149 ;
150 [label="X[2] <= 3.5\nentropy = 0.722\nsamples = 5\nvalue = [0, 1, 4]", fillcolor="#8139e5bf"] ;
149 -> 150 ;
151 [label="X[0] <= 1.5\nentropy = 1.0\nsamples = 2\nvalue = [0, 1, 1]", fillcolor="#39e58100"] ;
150 -> 151 ;
152 [label="entropy = 0.0\nsamples = 1\nvalue = [0, 0, 1]", fillcolor="#8139e5ff"] ;
151 -> 152 ;
153 [label="entropy = 0.0\nsamples = 1\nvalue = [0, 1, 0]", fillcolor="#39e581ff"] ;
151 -> 153 ;
154 [label="entropy = 0.0\nsamples = 3\nvalue = [0, 0, 3]", fillcolor="#8139e5ff"] ;
150 -> 154 ;
155 [label="entropy = 0.0\nsamples = 8\nvalue = [0, 0, 8]", fillcolor="#8139e5ff"] ;
149 -> 155 ;
156 [label="X[1] <= 2.5\nentropy = 1.285\nsamples = 96\nvalue = [12, 23, 61]", fillcolor="#8139e585"] ;
146 -> 156 ;
157 [label="X[3] <= 3.5\nentropy = 0.187\nsamples = 35\nvalue = [0, 1, 34]", fillcolor="#8139e5f8"] ;
156 -> 157 ;
158 [label="X[2] <= 3.5\nentropy = 0.544\nsamples = 8\nvalue = [0, 1, 7]", fillcolor="#8139e5db"] ;
157 -> 158 ;
159 [label="X[1] <= 1.5\nentropy = 0.918\nsamples = 3\nvalue = [0, 1, 2]", fillcolor="#8139e57f"] ;
158 -> 159 ;
160 [label="entropy = 0.0\nsamples = 2\nvalue = [0, 0, 2]", fillcolor="#8139e5ff"] ;
159 -> 160 ;
161 [label="entropy = 0.0\nsamples = 1\nvalue = [0, 1, 0]", fillcolor="#39e581ff"] ;
159 -> 161 ;
162 [label="entropy = 0.0\nsamples = 5\nvalue = [0, 0, 5]", fillcolor="#8139e5ff"] ;
158 -> 162 ;
163 [label="entropy = 0.0\nsamples = 27\nvalue = [0, 0, 27]", fillcolor="#8139e5ff"] ;
157 -> 163 ;
164 [label="X[2] <= 3.5\nentropy = 1.513\nsamples = 61\nvalue = [12, 22, 27]", fillcolor="#8139e521"] ;
156 -> 164 ;
165 [label="X[1] <= 3.5\nentropy = 1.279\nsamples = 20\nvalue = [4, 13, 3]", fillcolor="#39e5818f"] ;
164 -> 165 ;
166 [label="X[0] <= 3.5\nentropy = 1.561\nsamples = 8\nvalue = [3, 2, 3]", fillcolor="#e5813900"] ;
165 -> 166 ;
167 [label="X[3] <= 3.5\nentropy = 0.918\nsamples = 3\nvalue = [1, 0, 2]", fillcolor="#8139e57f"] ;
166 -> 167 ;
168 [label="entropy = 0.0\nsamples = 1\nvalue = [1, 0, 0]", fillcolor="#e58139ff"] ;
167 -> 168 ;
169 [label="entropy = 0.0\nsamples = 2\nvalue = [0, 0, 2]", fillcolor="#8139e5ff"] ;
167 -> 169 ;
170 [label="X[3] <= 4.5\nentropy = 1.522\nsamples = 5\nvalue = [2, 2, 1]", fillcolor="#e5813900"] ;
166 -> 170 ;
171 [label="X[3] <= 3.5\nentropy = 0.918\nsamples = 3\nvalue = [1, 2, 0]", fillcolor="#39e5817f"] ;
170 -> 171 ;
172 [label="entropy = 0.0\nsamples = 1\nvalue = [0, 1, 0]", fillcolor="#39e581ff"] ;
171 -> 172 ;
173 [label="X[0] <= 4.5\nentropy = 1.0\nsamples = 2\nvalue = [1, 1, 0]", fillcolor="#e5813900"] ;
171 -> 173 ;
174 [label="entropy = 0.0\nsamples = 1\nvalue = [1, 0, 0]", fillcolor="#e58139ff"] ;
173 -> 174 ;
175 [label="entropy = 0.0\nsamples = 1\nvalue = [0, 1, 0]", fillcolor="#39e581ff"] ;
173 -> 175 ;
176 [label="X[0] <= 4.5\nentropy = 1.0\nsamples = 2\nvalue = [1, 0, 1]", fillcolor="#e5813900"] ;
170 -> 176 ;
177 [label="entropy = 0.0\nsamples = 1\nvalue = [0, 0, 1]", fillcolor="#8139e5ff"] ;
176 -> 177 ;
178 [label="entropy = 0.0\nsamples = 1\nvalue = [1, 0, 0]", fillcolor="#e58139ff"] ;
176 -> 178 ;
179 [label="X[0] <= 3.5\nentropy = 0.414\nsamples = 12\nvalue = [1, 11, 0]", fillcolor="#39e581e8"] ;
165 -> 179 ;
180 [label="X[3] <= 4.5\nentropy = 0.918\nsamples = 3\nvalue = [1, 2, 0]", fillcolor="#39e5817f"] ;
179 -> 180 ;
181 [label="entropy = 0.0\nsamples = 2\nvalue = [0, 2, 0]", fillcolor="#39e581ff"] ;
180 -> 181 ;
182 [label="entropy = 0.0\nsamples = 1\nvalue = [1, 0, 0]", fillcolor="#e58139ff"] ;
180 -> 182 ;
183 [label="entropy = 0.0\nsamples = 9\nvalue = [0, 9, 0]", fillcolor="#39e581ff"] ;
179 -> 183 ;
184 [label="X[0] <= 4.5\nentropy = 1.392\nsamples = 41\nvalue = [8, 9, 24]", fillcolor="#8139e578"] ;
164 -> 184 ;
185 [label="X[1] <= 4.5\nentropy = 1.081\nsamples = 27\nvalue = [4, 3, 20]", fillcolor="#8139e5b1"] ;
184 -> 185 ;
186 [label="X[3] <= 3.5\nentropy = 0.337\nsamples = 16\nvalue = [1, 0, 15]", fillcolor="#8139e5ee"] ;
185 -> 186 ;
187 [label="X[0] <= 3.5\nentropy = 0.722\nsamples = 5\nvalue = [1, 0, 4]", fillcolor="#8139e5bf"] ;
186 -> 187 ;
188 [label="entropy = 0.0\nsamples = 3\nvalue = [0, 0, 3]", fillcolor="#8139e5ff"] ;
187 -> 188 ;
189 [label="X[2] <= 4.5\nentropy = 1.0\nsamples = 2\nvalue = [1, 0, 1]", fillcolor="#e5813900"] ;
187 -> 189 ;
190 [label="entropy = 0.0\nsamples = 1\nvalue = [1, 0, 0]", fillcolor="#e58139ff"] ;
189 -> 190 ;
191 [label="entropy = 0.0\nsamples = 1\nvalue = [0, 0, 1]", fillcolor="#8139e5ff"] ;
189 -> 191 ;
192 [label="entropy = 0.0\nsamples = 11\nvalue = [0, 0, 11]", fillcolor="#8139e5ff"] ;
186 -> 192 ;
193 [label="X[3] <= 3.5\nentropy = 1.539\nsamples = 11\nvalue = [3, 3, 5]", fillcolor="#8139e540"] ;
185 -> 193 ;
194 [label="X[2] <= 4.5\nentropy = 0.918\nsamples = 3\nvalue = [1, 2, 0]", fillcolor="#39e5817f"] ;
193 -> 194 ;
195 [label="entropy = 0.0\nsamples = 1\nvalue = [0, 1, 0]", fillcolor="#39e581ff"] ;
194 -> 195 ;
196 [label="X[0] <= 3.5\nentropy = 1.0\nsamples = 2\nvalue = [1, 1, 0]", fillcolor="#e5813900"] ;
194 -> 196 ;
197 [label="entropy = 0.0\nsamples = 1\nvalue = [1, 0, 0]", fillcolor="#e58139ff"] ;
196 -> 197 ;
198 [label="entropy = 0.0\nsamples = 1\nvalue = [0, 1, 0]", fillcolor="#39e581ff"] ;
196 -> 198 ;
199 [label="X[0] <= 3.5\nentropy = 1.299\nsamples = 8\nvalue = [2, 1, 5]", fillcolor="#8139e580"] ;
193 -> 199 ;
200 [label="entropy = 0.0\nsamples = 4\nvalue = [0, 0, 4]", fillcolor="#8139e5ff"] ;
199 -> 200 ;
201 [label="X[3] <= 4.5\nentropy = 1.5\nsamples = 4\nvalue = [2, 1, 1]", fillcolor="#e5813955"] ;
199 -> 201 ;
202 [label="X[2] <= 4.5\nentropy = 1.0\nsamples = 2\nvalue = [1, 1, 0]", fillcolor="#e5813900"] ;
201 -> 202 ;
203 [label="entropy = 0.0\nsamples = 1\nvalue = [0, 1, 0]", fillcolor="#39e581ff"] ;
202 -> 203 ;
204 [label="entropy = 0.0\nsamples = 1\nvalue = [1, 0, 0]", fillcolor="#e58139ff"] ;
202 -> 204 ;
205 [label="X[2] <= 4.5\nentropy = 1.0\nsamples = 2\nvalue = [1, 0, 1]", fillcolor="#e5813900"] ;
201 -> 205 ;
206 [label="entropy = 0.0\nsamples = 1\nvalue = [1, 0, 0]", fillcolor="#e58139ff"] ;
205 -> 206 ;
207 [label="entropy = 0.0\nsamples = 1\nvalue = [0, 0, 1]", fillcolor="#8139e5ff"] ;
205 -> 207 ;
208 [label="X[3] <= 3.5\nentropy = 1.557\nsamples = 14\nvalue = [4, 6, 4]", fillcolor="#39e58133"] ;
184 -> 208 ;
209 [label="X[2] <= 4.5\nentropy = 0.811\nsamples = 4\nvalue = [1, 3, 0]", fillcolor="#39e581aa"] ;
208 -> 209 ;
210 [label="entropy = 0.0\nsamples = 2\nvalue = [0, 2, 0]", fillcolor="#39e581ff"] ;
209 -> 210 ;
211 [label="X[1] <= 3.5\nentropy = 1.0\nsamples = 2\nvalue = [1, 1, 0]", fillcolor="#e5813900"] ;
209 -> 211 ;
212 [label="entropy = 0.0\nsamples = 1\nvalue = [1, 0, 0]", fillcolor="#e58139ff"] ;
211 -> 212 ;
213 [label="entropy = 0.0\nsamples = 1\nvalue = [0, 1, 0]", fillcolor="#39e581ff"] ;
211 -> 213 ;
214 [label="X[1] <= 3.5\nentropy = 1.571\nsamples = 10\nvalue = [3, 3, 4]", fillcolor="#8139e524"] ;
208 -> 214 ;
215 [label="entropy = 0.0\nsamples = 3\nvalue = [0, 0, 3]", fillcolor="#8139e5ff"] ;
214 -> 215 ;
216 [label="X[2] <= 4.5\nentropy = 1.449\nsamples = 7\nvalue = [3, 3, 1]", fillcolor="#e5813900"] ;
214 -> 216 ;
217 [label="X[1] <= 4.5\nentropy = 0.811\nsamples = 4\nvalue = [1, 3, 0]", fillcolor="#39e581aa"] ;
216 -> 217 ;
218 [label="X[3] <= 4.5\nentropy = 1.0\nsamples = 2\nvalue = [1, 1, 0]", fillcolor="#e5813900"] ;
217 -> 218 ;
219 [label="entropy = 0.0\nsamples = 1\nvalue = [0, 1, 0]", fillcolor="#39e581ff"] ;
218 -> 219 ;
220 [label="entropy = 0.0\nsamples = 1\nvalue = [1, 0, 0]", fillcolor="#e58139ff"] ;
218 -> 220 ;
221 [label="entropy = 0.0\nsamples = 2\nvalue = [0, 2, 0]", fillcolor="#39e581ff"] ;
217 -> 221 ;
222 [label="X[3] <= 4.5\nentropy = 0.918\nsamples = 3\nvalue = [2, 0, 1]", fillcolor="#e581397f"] ;
216 -> 222 ;
223 [label="entropy = 0.0\nsamples = 1\nvalue = [1, 0, 0]", fillcolor="#e58139ff"] ;
222 -> 223 ;
224 [label="X[1] <= 4.5\nentropy = 1.0\nsamples = 2\nvalue = [1, 0, 1]", fillcolor="#e5813900"] ;
222 -> 224 ;
225 [label="entropy = 0.0\nsamples = 1\nvalue = [0, 0, 1]", fillcolor="#8139e5ff"] ;
224 -> 225 ;
226 [label="entropy = 0.0\nsamples = 1\nvalue = [1, 0, 0]", fillcolor="#e58139ff"] ;
224 -> 226 ;
}